,sax_PC67,sax_PC30,custom_PC6,sax_PC187,sax_PC145,sax_PC154,custom_PC1,fourier_PC1,custom_PC7,fourier_PC2,custom_PC4,catch22_PC8,fourier_PC26,sax_PC242,sax_PC128
A-1087,-0.019857536769739614,-0.019857536769737043,0.09625939893070273,-0.01146324756245166,-0.01146324756245166,-0.01146324756245166,0.40558899009168686,0.49472428032944954,0.14956976666403987,0.46567541874154567,0.540820387102726,0.1262239704941288,0.7299549255792807,-0.12491739228048561,-0.13499167716019864
ARRY-380,-0.019857536769739614,-0.019857536769737043,-1.2762895590446302,-0.011463247562451661,-0.011463247562451661,-0.011463247562451661,-0.7731606029800595,-0.2818232606012406,-0.5346060845468853,-0.348172289165989,-0.9349103423678675,-0.24322589018041432,-0.3073771492384424,-0.463438671884278,-0.43385705091764354
Abemaciclib,-0.019857536769739614,-0.019857536769737043,-1.2571617942813047,-0.01146324756245166,-0.01146324756245166,-0.01146324756245166,-0.7550500794285528,-0.29283819698172925,-0.5090952791766254,-0.35646444628249746,-0.8656253262881307,-0.41514172155404605,-0.30909159924435986,-0.49776934867261585,-0.4654806597653017
Abiraterone,-0.019857536769739614,-0.019857536769737043,-1.0269188690709468,-0.01146324756245166,-0.01146324756245166,-0.01146324756245166,-0.6845801913065267,-0.36055369752245414,-0.4348426598305634,-0.2773169107246599,-0.8807914265204433,-0.16983539234471687,-0.30906319926229764,-0.3331901647964021,-0.2682785074089548
Acalabrutinib,-0.019857536769739614,-0.019857536769737043,-0.3578716100707459,-0.011463247562451661,-0.011463247562451661,-0.011463247562451661,-0.4984387753891816,-0.5318917416788372,-0.6051797535904455,-0.506465043714408,1.537724384318031,-0.5888298810861688,-0.29351381295811724,-0.6095000967655702,-0.5340727127588137
Afatinib,-0.019857536769739614,-0.019857536769737043,-1.2729796784821694,-0.011463247562451661,-0.011463247562451661,-0.011463247562451661,-0.7051466768833706,-0.24679264048582908,-0.44596610378797347,-0.2999796279392912,-0.920178702377451,-0.2983291838353179,-0.2975631796810152,-0.39352893006075357,-0.3490077905587862
Alectinib,-0.019857536769739614,-0.019857536769737043,-0.7714086993118341,-0.011463247562451661,-0.011463247562451661,-0.011463247562451661,-0.654461636504542,-0.3714631958701419,-0.5742178648912919,-0.3845588865711724,-0.9624357039020872,-0.00323654544655828,-0.3125362257665819,-0.04585280331340436,0.019117740604445092
Allopurinol,-0.019857536769739614,-0.019857536769737043,-0.3376263656011238,-0.01146324756245166,-0.01146324756245166,-0.01146324756245166,-0.46387513721792745,-0.45719073049526826,-0.4932984477945468,-0.496919962804149,-0.7300907952625274,-0.4345970511120274,-0.31601297416245044,-0.5502016550402592,-0.48730540389960103
Alpelisib,-0.019857536769739614,-0.019857536769737043,0.15678649248320178,-0.011463247562451661,-0.011463247562451661,-0.011463247562451661,-0.003682552617621785,0.1013315988582972,-0.14501580610553347,0.07618790431740763,-0.21223679340961965,0.15506458325502853,-0.0008176131319932445,-0.041483444449434144,-0.041011656500256954
Altretamine,-0.019857536769739614,-0.019857536769737043,0.07046582739745134,-0.011463247562451661,-0.011463247562451661,-0.011463247562451661,0.15286656100271892,0.025056402787021766,0.2549090105118684,0.03301749822187951,0.11607812655468353,0.004255569041608461,-0.08840024742800494,0.15825867504634997,0.10931183626149817
Altretamine.1,-0.019857536769739614,-0.019857536769737043,-0.17514280669281448,-0.011463247562451661,-0.011463247562451661,-0.011463247562451661,-0.3301139936964015,-0.4842960154520188,-0.3521696605042018,-0.48066991538934006,0.08675203925102978,-0.5453272808322976,-0.2897455383262721,-0.1638254926406019,-0.23743435370895027
Ambrisentan,-0.019857536769739614,-0.019857536769737043,0.9304013270469811,-0.011463247562451661,-0.011463247562451661,-0.011463247562451661,0.05539063163209923,-0.18034701831516348,-0.04048415777900823,-0.281963740605816,-0.263102982813404,-0.598980487812072,-0.28240111819470975,-0.2892885114488913,-0.31560256994506286
Amifostine,-0.019857536769739614,-0.019857536769737043,0.4712941461462843,-0.011463247562451661,-0.011463247562451661,-0.011463247562451661,-0.07692320730524613,-0.14220773959163033,-0.3053891838774178,-0.06504792259514412,-0.01563202292750063,-0.26183533584457036,-0.19597321438099358,0.21630872852481225,0.15340672747161296
Aminolevulinic acid hydrochloride,-0.019857536769739614,-0.019857536769737043,-0.7413508580665075,-0.011463247562451661,-0.011463247562451661,-0.011463247562451661,-0.5730576122948786,-0.44727117298362284,-0.5283788322463459,-0.5251811206808034,-0.38380294483106364,-0.7248963474357771,-0.2987826932096779,-0.36544019450665904,-0.3717233405761181
Amiodarone,-0.019857536769739614,-0.019857536769737043,1.0331779109699288,-0.011463247562451661,-0.011463247562451661,-0.011463247562451661,0.24004994303246083,-0.07440403175742306,0.259349789829393,-0.13835772983791608,-0.1893247409860952,0.5900905857937405,-0.2053276769574285,0.8024270104202538,0.7446791323345163
Anastrozole,-0.019857536769739614,-0.019857536769737043,-0.8103217482642341,-0.011463247562451661,-0.011463247562451661,-0.011463247562451661,-0.6408905108334884,-0.44415114937267736,-0.5852259527116798,-0.5337132393625807,-0.4514072754355832,-0.6214568312765721,-0.2955892190222766,-0.4559483424031861,-0.4378656773912904
Apalutamide,-0.019857536769739614,-0.019857536769737043,-0.681249896506034,-0.011463247562451661,-0.011463247562451661,-0.011463247562451661,-0.6002500644093577,-0.4951309870628395,-0.6973729233105398,-0.43020824533930846,-0.7346698086027025,-0.24080907905519927,-0.3004165292852146,-0.1444754748144478,-0.17797306101652266
Arsenic trioxide,-0.019857536769739614,-0.019857536769737043,-0.10641333043533319,-0.011463247562451661,-0.011463247562451661,-0.011463247562451661,-0.3319892877991863,-0.3863647328696191,-0.45455030881640546,-0.34548957571717315,-0.17368414970753762,-0.3626163597660386,-0.26530751053940665,-0.18629648108387759,-0.20937396839342254
Asciminib,-0.019857536769739614,-0.019857536769737043,0.1509503106156955,-0.011463247562451661,-0.011463247562451661,-0.011463247562451661,-0.016928593964071315,-0.08587087002061931,-0.13736244185611465,-0.10935662793830778,1.5383417817861589,-0.2693274503327371,0.030989515503527163,0.014694026658755252,0.09929027007738103
Auranofin,-0.019857536769739614,-0.019857536769737043,0.3846334412230177,-0.011463247562451661,-0.011463247562451661,-0.011463247562451661,0.16218891111827854,0.23897285505519644,-0.10976458641789007,0.23910149882411083,-0.2490401809211689,0.4424234260431,0.5237181878805772,0.039037597472303856,0.003751339122132356
Avapritinib,-0.019857536769739614,-0.019857536769737043,0.9637111190198459,-0.011463247562451661,-0.011463247562451661,-0.011463247562451661,0.2947256677643562,0.3567971858204472,-0.11746719977430395,0.2881968982903934,0.15018896573097992,-0.008070167696988413,0.4287949602947729,0.4578718542900262,0.37989412323265725
Axitinib,-0.019857536769739614,-0.019857536769737043,-0.8917085010261732,-0.011463247562451661,-0.011463247562451661,-0.011463247562451661,-0.37541325304945145,-0.18161294038490022,-0.15912173605487442,-0.1495140240151735,-0.30268462883781183,0.055250283783646346,-0.21792068576912596,-0.2861675408317697,-0.211378281630246
Azacitidine,-0.019857536769739614,-0.019857536769737043,-0.43631183151342295,-0.011463247562451663,-0.011463247562451663,-0.011463247562451663,-0.4868201416742847,-0.48802607114103136,-0.5166242365103284,-0.488655602710743,0.1912969366329468,-0.5475024108449912,-0.30486341170198844,-0.5383419666951971,-0.47594762889093506
BLU-667,-0.019857536769739614,-0.019857536769737043,0.3908473951950059,-0.011463247562451661,-0.011463247562451661,-0.011463247562451661,0.5900006727247448,0.7171556103304457,0.40374262651314824,0.647813254332134,-0.0555909591179777,0.8163041071138707,0.7083274654645769,0.48845736633781817,0.4767692630124551
Belinostat,-0.019857536769739614,-0.019857536769737043,-1.2511189854965237,-0.011463247562451661,-0.011463247562451661,-0.011463247562451661,-0.7665983640793644,-0.29126732170040087,-0.5360148605645133,-0.33782241321172496,-0.9663115507720342,-0.1206935661320105,-0.306278179079931,-0.4802919132167348,-0.4525639744613286
Belzutifan,-0.019857536769739614,-0.019857536769737043,-0.2893717817896011,-0.011463247562451661,-0.011463247562451661,-0.011463247562451661,-0.5963054437381177,-0.3267375511810671,-0.7621513543777604,-0.27563149585185404,-0.42028047626448445,-0.17362172977422044,-0.27646865683255245,-0.125749651111718,-0.11917987273636957
Bendamustine hydrochloride,-0.019857536769739614,-0.019857536769737043,-0.24359735215631836,-0.011463247562451661,-0.011463247562451661,-0.011463247562451661,-0.48942282991160896,-0.5022241098893219,-0.5590321610892462,-0.5395405309695507,-0.6153932460432364,-0.4539718202991681,-0.31603076523873463,-0.48840643682125107,-0.4385337818035648
Binimetinib,-0.019857536769739614,-0.019857536769737043,-0.5049368342832369,-0.011463247562451661,-0.011463247562451661,-0.011463247562451661,-0.38642941312803625,-0.4672876050390901,-0.11490128549793195,-0.4502915158758306,0.16560660116364187,-0.14776185073441922,-0.2887364376861172,0.7612301982742481,0.7567050117554567
Bleomycin sulfate,-0.019857536769739614,-0.019857536769737043,0.15028846818722602,-0.011463247562451661,-0.011463247562451661,-0.011463247562451661,0.16746049845942254,-0.06802282413342241,0.3986081723779761,0.0007886059410056997,0.19345778950003703,0.36677723782386845,-0.1639874874590411,0.6338945970956859,0.6164030851778186
Bortezomib,-0.019857536769739614,-0.019857536769737043,-0.5200491080129932,-0.011463247562451661,-0.011463247562451661,-0.011463247562451661,2.677794666343075,2.886477566103615,2.998043809046308,3.655282939353152,2.5906162638431964,2.371522066189766,2.874710130085408,0.17573611050223112,0.22222148193588306
Bosutinib,-0.019857536769739614,-0.019857536769737043,0.30318123422565385,-0.011463247562451661,-0.011463247562451661,-0.011463247562451661,0.15485549844169183,0.265236739754772,-0.15095604882389807,0.24719915643363016,-0.1690708777233302,0.6287595637971816,0.5192210875031084,-0.15883193965320727,-0.16193855512193547
Brigatinib,-0.019857536769739614,-0.019857536769737043,0.28188799800935926,-0.011463247562451661,-0.011463247562451661,-0.011463247562451661,0.40499697932094625,0.5128758932225572,0.19036163048399088,0.4667879804318659,0.060890205248269096,0.5386125088266596,0.6202352732803298,0.24314907583205822,0.2536223893127831
Buspirone,-0.019857536769739614,-0.019857536769737043,1.0649355433227377,-0.011463247562451661,-0.011463247562451661,-0.011463247562451661,0.12644769748502316,-0.1197078816544026,0.021146118269983808,-0.22340548870225765,-0.103164388193529,-0.5102835195166792,-0.2679539529721663,-0.2899127055723156,-0.3196111964187097
Busulfan,-0.019857536769739614,-0.019857536769737043,0.6782356227649722,-0.011463247562451661,-0.011463247562451661,-0.011463247562451661,0.5374391306234052,0.2908497551745231,0.6542305428129348,0.235527590627458,0.4359210318542332,0.09971960848760353,0.050106393449651954,0.30494429405106643,0.2395921966550192
Busulfan.1,-0.019857536769739614,-0.019857536769737043,-0.684742411447062,-0.011463247562451661,-0.011463247562451661,-0.011463247562451661,-0.532352585432274,-0.4257317327831803,-0.3700696676627812,-0.3281596150936482,-0.3350633410365562,-0.48611540826452854,-0.2936803184457758,0.019063385522725462,-0.04234786532480587
Cabazitaxel,-0.019857536769739614,-0.019857536769737043,-1.353131216570538,-0.011463247562451661,-0.011463247562451661,-0.011463247562451661,-0.8271959721876037,-0.2223828236706333,-0.5696686276608667,-0.2888512775237281,-1.0022231096663106,-0.26183533584457036,-0.29761194119141615,-0.14260289244417482,-0.10581778449088021
Cabozantinib,-0.019857536769739614,-0.019857536769737043,0.10087955811522827,-0.011463247562451661,-0.011463247562451661,-0.011463247562451661,0.08289499684286085,0.28611264098247224,-0.06034634531094861,0.23253602604638315,0.0870606987324191,0.0028054823664793727,0.2703464221917918,-0.13948192182705318,-0.12920143892048658
Capecitabine,-0.019857536769739614,-0.019857536769737043,-0.22302077072592671,-0.011463247562451661,-0.011463247562451661,-0.011463247562451661,-0.49354733393445854,-0.45606968039590406,-0.5428541256786882,-0.428426246856144,-0.5968029346812995,-0.2060069988521023,-0.31515421842806945,-0.5121258135113754,-0.48396488183822856
Capmatinib,-0.019857536769739614,-0.019857536769737043,-1.3321813261212256,-0.01146324756245166,-0.01146324756245166,-0.01146324756245166,-0.8211706010340242,-0.24743803317061933,-0.5952625419757075,-0.31702357400735043,-0.9941970368143246,-0.02885474337383794,-0.30284248844410155,-0.08413670955009628,-0.030544687374623552
Carboplatin,-0.019857536769739614,-0.019857536769737043,0.33405265825679603,-0.01146324756245166,-0.01146324756245166,-0.01146324756245166,0.02584054342021704,-0.16629309096593517,0.0642542974193766,-0.1861286300906783,-0.1771484154384444,-0.20987389665244646,-0.23400301558591322,-0.11326576864323151,-0.1716260690999152
Carboplatin.1,-0.019857536769739614,-0.019857536769737043,-0.1791714537420457,-0.011463247562451661,-0.011463247562451661,-0.011463247562451661,-0.06897900569449604,-0.2914360014585845,0.05489521065166609,-0.2855689564014168,0.34368965825794173,-0.22945006676668853,-0.22082887938493198,0.1688699751445635,0.1146566715596939
Carfilzomib,-0.019857536769739614,-0.019857536769737043,0.7553651856894413,-0.011463247562451661,-0.011463247562451661,-0.011463247562451661,0.9125587243379398,1.0563421312874697,0.736529882822217,0.9634273471994818,0.4264200619703636,0.8206543671392579,1.0481870348419846,0.5365203138414911,0.5562736880731166
Carmustine,-0.019857536769739614,-0.019857536769737043,-0.18063670267979187,-0.011463247562451661,-0.011463247562451661,-0.011463247562451661,-0.48497506787617234,-0.4801281661299885,-0.565114574524751,-0.5267419512276571,-0.5850724887690891,-0.4931241605276521,-0.316764050287692,-0.5945194378033862,-0.5280597730483435
Celecoxib,-0.019857536769739614,-0.019857536769737043,-0.3430373494558689,-0.011463247562451661,-0.011463247562451661,-0.011463247562451661,-0.08589977337068919,-0.1343587972523717,-0.0526905265421967,-0.045377642607203554,-0.14600445892328134,2.0706290811004897,-0.2363990719151124,0.07399246838406608,0.1794627995503171
Ceritinib,-0.019857536769739614,-0.019857536769737043,-0.6916630672620302,-0.011463247562451661,-0.011463247562451661,-0.011463247562451661,-0.15292912331022604,0.09527063329173455,-0.07941330065421136,0.15601732056478243,0.02761967751647679,-0.05858152021398334,0.20832855407309317,-0.5589403727681999,-0.48997782154869884
Chlorambucil,-0.019857536769739614,-0.019857536769737043,-0.06852005401293916,-0.011463247562451661,-0.011463247562451661,-0.011463247562451661,1.326103365242405,1.1699437862714697,1.7464536235090329,1.678308653433549,1.2458353752490037,1.4584508230835136,0.817898333356123,0.5589913022847669,0.5542693748362931
Chlorambucil.1,-0.019857536769739614,-0.019857536769737043,-0.1476144094801016,-0.011463247562451661,-0.011463247562451661,-0.011463247562451661,-0.00490031363777207,-0.19707884880775,0.07915455527244128,-0.1839309204204749,0.3815563313778055,-0.08057450145344038,-0.16763150482408543,0.13766026897334724,0.07924713770914714
Cisplatin,-0.019857536769739614,-0.019857536769737043,-0.28805138553866155,-0.011463247562451663,-0.011463247562451663,-0.011463247562451663,-0.4801950999267535,-0.4892665112222464,-0.5512997129957634,-0.49098667197208795,0.13249042149045906,-0.5754165793412251,-0.3029257460557791,-0.47186529255050635,-0.44488077372017226
Cladribine,-0.019857536769739614,-0.019857536769737043,-0.748093199652091,-0.011463247562451661,-0.011463247562451661,-0.011463247562451661,0.3974384322114212,0.32949223879892486,0.7895907560587906,0.5076393859066944,0.4916577677015167,0.7894775036239834,0.09996649900863648,0.5327751491009451,0.5121787968630017
Clofarabine,-0.019857536769739614,-0.019857536769737043,0.18231970195829442,-0.011463247562451661,-0.011463247562451661,-0.011463247562451661,1.1744715098491854,1.1838192448762135,1.2429460825226337,1.2039239193128297,1.2497798451166484,1.1420902467928618,0.6206930573282392,1.1076579367747488,1.1308434826291582
Clozapine,-0.019857536769739614,-0.019857536769737043,0.876218031262433,-0.011463247562451661,-0.011463247562451661,-0.011463247562451661,0.06505544133174283,-0.17525156017851404,-0.006093967934109675,-0.267531909941321,-0.12847740045909695,-0.6026057044998947,-0.2769440856086526,-0.11888351575405043,-0.15124888452554397
Cobimetinib,-0.019857536769739614,-0.019857536769737043,-0.8368823906473262,-0.01146324756245166,-0.01146324756245166,-0.01146324756245166,-0.034172998340114745,0.12075719924867749,0.21182787403051437,0.27076936626409703,0.042820069457748224,0.28384033604357134,0.18482538552920644,-0.3659603562761793,-0.3033539890533643
Copanlisib tris-HCl,-0.019857536769739614,-0.019857536769737043,1.6161467943445482,-0.011463247562451661,-0.011463247562451661,-0.011463247562451661,1.548560503950648,1.5800126645642494,1.1818066233989772,1.3374461184852993,0.30553144767334567,1.5498062836166433,0.9967312994815529,1.7961440549117798,1.815650505210487
Crizotinib,-0.019857536769739614,-0.019857536769737043,0.22805616885351623,-0.011463247562451661,-0.011463247562451661,-0.011463247562451661,0.3434923227773427,0.49719441274508674,0.35766604899559956,0.45638914609274417,0.3203659990175857,0.41728859034086324,0.5798003873946034,-0.20002875179921278,-0.16728339042013118
Cyclophosphamide,-0.019857536769739614,-0.019857536769737043,0.2841369644824282,-0.011463247562451661,-0.011463247562451661,-0.011463247562451661,0.4042084603811905,0.2652959716067434,0.43904508266551684,0.3456010300941307,0.06956799159219303,0.26454612722727106,0.06432473561911212,0.10020862156788772,0.06922557152503014
Cyclophosphamide.1,-0.019857536769739614,-0.019857536769737043,-0.6137430057971102,-0.011463247562451661,-0.011463247562451661,-0.011463247562451661,-0.6169599127457325,-0.401014137999745,-0.5346533331598047,-0.32946948285088506,-0.3749536988792529,-0.6287072646522175,-0.294836000932185,-0.17318840449196676,-0.2254084742880098
Cytarabine hydrochloride,-0.019857536769739614,-0.019857536769737043,0.1619685614118342,-0.011463247562451661,-0.011463247562451661,-0.011463247562451661,-0.26998402725465637,-0.392128344904302,-0.32645138549539393,-0.3923391952993852,-0.12257788178698921,-0.41820301564598505,-0.268061804749704,-0.10203027442159367,-0.1031453668417823
Dabrafenib mesylate,-0.019857536769739614,-0.019857536769737043,-0.48733028746131507,-0.01146324756245166,-0.01146324756245166,-0.01146324756245166,-0.5071572535560384,-0.4260115238294602,-0.3151557602534108,-0.46115892913537776,0.2507036794694846,-0.4010436566569582,-0.2840792954358921,0.10520217455528229,0.05519537886726633
Dacarbazine,-0.019857536769739614,-0.019857536769737043,-0.2621771538545904,-0.011463247562451663,-0.011463247562451663,-0.011463247562451663,-0.40976818419499494,-0.43904870760554343,-0.46148560654819176,-0.44589481534860637,0.12142884900383707,-0.38291757321784514,-0.29408310390612663,-0.5196161429924673,-0.4739433156541117
Dacomitinib,-0.019857536769739614,-0.019857536769737043,-0.2289690059363116,-0.011463247562451661,-0.011463247562451661,-0.011463247562451661,0.06442053232395382,0.0676984474465042,0.0365713016746663,0.14967931489604863,0.39140028982384056,-0.055681346863725265,0.13029860965962697,-0.24996428167315873,-0.21471880369161836
Dactinomycin,-0.019857536769739614,-0.019857536769737043,4.877751742345743,-0.011463247562451661,-0.011463247562451661,-0.011463247562451661,4.058932733299538,4.399789625073632,2.8292494676498134,3.9108237406984045,2.1839269723645827,2.788421985289365,5.145169018291878,-0.1376093394567802,-0.09713242713131214
Darolutamide,-0.019857536769739614,-0.019857536769737043,-0.20426187123900943,-0.011463247562451661,-0.011463247562451661,-0.011463247562451661,-0.3785214322623965,-0.31377262509701154,-0.6235298896349548,-0.28330327922313703,-0.4691229874875482,-0.12456046393235456,-0.23303312766087508,0.4073121302926558,0.3631915129257956
Dasatinib,-0.019857536769739614,-0.019857536769737043,0.3710292722078275,-0.011463247562451661,-0.011463247562451661,-0.011463247562451661,-0.12440230513593376,-0.21072938355809234,-0.19691344270801833,-0.23974291794320052,-0.6299362507637867,0.0905357262117863,-0.2078452799971697,0.0459037328299714,0.07523851123550036
Daunorubicin hydrochloride,-0.019857536769739614,-0.019857536769737043,-0.028745627307820203,-0.011463247562451661,-0.011463247562451661,-0.011463247562451661,0.2159835366416101,0.0829341922917489,0.2931711057129478,0.22182440264786554,0.08860418520641544,0.1376635431534801,-0.03419834769759663,0.12580058062828506,0.08058334653369607
Daunorubicin.1,-0.019857536769739614,-0.019857536769737043,-0.45489582456308203,-0.01146324756245166,-0.01146324756245166,-0.01146324756245166,0.27556456844598015,0.3328133723223823,0.4577020651362471,0.4379914121545368,-0.13215032185040454,0.6808418435455663,0.20833472855832322,0.31711607945784076,0.29838538493517236
Decitabine,-0.019857536769739614,-0.019857536769737043,-0.8236676593239233,-0.011463247562451661,-0.011463247562451661,-0.011463247562451661,-0.5618614034667414,-0.417416753999088,-0.4544325228566214,-0.4683340019845784,-0.49740292755482557,-0.3611662730909096,-0.2960318533367383,-0.3061417527813481,-0.31760688318188623
Dexrazoxane,-0.019857536769739614,-0.019857536769737043,-0.23246064911436198,-0.011463247562451661,-0.011463247562451661,-0.011463247562451661,-0.5163784781951263,-0.4600084150147698,-0.5938466063625051,-0.41866881067104306,-0.7563985561129732,0.057183732683818385,-0.3149756741470662,-0.45033059529236713,-0.42183117149670313
Docetaxel,-0.019857536769739614,-0.019857536769737043,-0.7111896757811033,-0.011463247562451661,-0.011463247562451661,-0.011463247562451661,-0.02825810269816075,-0.2550808203660973,0.35818645505147245,-0.15448908105486864,-0.05308706633313944,0.8061535003879675,-0.2682202877988981,0.8398786578257132,0.732653252913576
Doxorubicin hydrochloride,-0.019857536769739614,-0.019857536769737043,0.4390984793584495,-0.011463247562451661,-0.011463247562451661,-0.011463247562451661,0.6726128121348002,0.4938332772418011,0.7785626838499528,0.4561413323488236,0.4078297519168491,0.3836949157003738,0.3529551594698427,0.18759579884729324,0.11599288038424285
Doxorubicin.1,-0.019857536769739614,-0.019857536769737043,0.29131240549638776,-0.01146324756245166,-0.01146324756245166,-0.01146324756245166,0.6421944013652231,0.41417475948615257,0.8149635444726538,0.351227125598048,0.9484243370775243,0.5947308631541535,0.2641554171573385,0.42154375630673036,0.4115622723744671
Duvelisib,-0.019857536769739614,-0.019857536769737043,-0.10801505884764968,-0.011463247562451661,-0.011463247562451661,-0.011463247562451661,-0.012016156271957148,-0.021613973685853827,-0.12289654329135466,-0.021975212402457606,0.051972316835976244,0.10866180965089933,-0.1141774514793642,0.2818491114843664,0.26765258197054687
E.,-0.019857536769739614,-0.019857536769737043,-0.029375043005467495,-0.011463247562451661,-0.011463247562451661,-0.011463247562451661,-0.19368322346859657,-0.33662326296258877,-0.236057998601289,-0.376924520496862,-0.23759639617000136,-0.8413003289880997,-0.30442974433547537,-0.4481013305658518,-0.4456920433636484
Enasidenib,-0.019857536769739614,-0.019857536769737043,-0.7034963354750131,-0.011463247562451661,-0.011463247562451661,-0.011463247562451661,-0.5961099780035539,-0.4394268634816162,-0.7028048328126749,-0.35681432784570893,-0.7114833152168646,-0.00734512435942388,-0.29788331146922603,-0.11513835101350452,-0.12318849921001637
Encorafenib,-0.019857536769739614,-0.019857536769737043,-0.6920851510156911,-0.011463247562451661,-0.011463247562451661,-0.011463247562451661,-0.636175433301626,-0.4768938029086193,-0.7026932858082086,-0.4449064123809114,-0.7441536283388317,-0.2763362025958608,-0.3039660355233056,-0.17318840449196674,-0.18331789631471843
Entacapone,-0.019857536769739614,-0.019857536769737043,0.9212972021446316,-0.011463247562451661,-0.011463247562451661,-0.011463247562451661,0.10114680714936587,-0.1710886820564849,0.07287716988537007,-0.27664238737748936,0.0526926034147457,-0.5438771941571686,-0.27895586543887496,-0.20127714004606137,-0.22540847428800978
Entrectinib,-0.019857536769739614,-0.019857536769737043,0.1459013046747766,-0.011463247562451661,-0.011463247562451661,-0.011463247562451661,0.19067618824324237,0.41803806801518767,0.1874227635504579,0.3091673969876452,0.26404621179244253,0.18189118674491572,0.5450421302748784,-0.3042691704110751,-0.2674990522613013
Enzalutamide,-0.019857536769739614,-0.019857536769737043,-0.5690940836106956,-0.011463247562451661,-0.011463247562451661,-0.011463247562451661,-0.43498276778978096,-0.43046540422739665,-0.16833276578978462,-0.4614768223853419,0.24363798869526568,-0.33941497296397405,-0.28544968107034824,0.25313618180684744,0.22957063047090223
Epirubicin hydrochloride,-0.019857536769739614,-0.019857536769737043,2.17803546056716,-0.01146324756245166,-0.01146324756245166,-0.01146324756245166,0.7640381872476114,0.31541873348902566,0.8248000470033189,0.21476130085996875,0.3541853079254736,0.42961432707946007,0.06348113574682805,1.2875506831456396,1.265533332143691
Erdafitinib,-0.019857536769739614,-0.019857536769737043,-0.7722399504953122,-0.011463247562451661,-0.011463247562451661,-0.011463247562451661,-0.39422952959000046,-0.11249398578371646,-0.29760646187810796,-0.1081627505462204,-0.13866436840205723,-0.3326479018133717,-0.09556041431676758,-0.47529836022934013,-0.4011199347161947
Erismodegib,-0.019857536769739614,-0.019857536769737043,-0.43434328814109174,-0.011463247562451661,-0.011463247562451661,-0.011463247562451661,-0.11785665971852863,-0.131854175526365,0.04286757805112323,-0.057992204166407886,0.3219437785907395,-0.023054396673321844,-0.07272879325213531,0.8024270104202537,0.7346575661503992
Erlotinib hydrochloride,-0.019857536769739614,-0.019857536769737043,-0.12273132294195392,-0.011463247562451661,-0.011463247562451661,-0.011463247562451661,-0.39599860882591853,-0.47865333197507604,-0.5584365089842929,-0.4978011511559442,1.4497804155062273,-0.49626601499043177,-0.28453381114913207,-0.5807871670880511,-0.5140295803905797
Estramustine phosphate sodium,-0.019857536769739614,-0.019857536769737043,-0.11170037433949753,-0.011463247562451661,-0.011463247562451661,-0.011463247562451661,-0.19136521741970539,-0.13268651043947727,-0.453484384901976,-0.051172760460071055,0.007074255854219734,0.16086492995554474,-0.20631930664008538,-0.0071527676610962454,0.01577721854307281
Etoposide,-0.019857536769739614,-0.019857536769737043,-0.0417975989836027,-0.011463247562451663,-0.011463247562451663,-0.011463247562451663,0.36190453607599504,0.2060893687619763,0.5121579878576388,0.24389810810747606,0.615418973193185,0.6076124664515496,0.0687192823541041,0.45880814547516263,0.4907994556702189
Everolimus,-0.019857536769739614,-0.019857536769737043,-0.09072574156929451,-0.011463247562451661,-0.011463247562451661,-0.011463247562451661,-0.3197155309908109,-0.3078581402682671,-0.3991711468064874,-0.2952582986945235,-0.2765826822993024,-0.23186687789190355,-0.2699846231564508,0.0009617559434199777,-0.039675447675708
Evobrutinib,-0.019857536769739614,-0.019857536769737043,1.304792666806879,-0.011463247562451661,-0.011463247562451661,-0.011463247562451661,0.3363708016777837,0.060101848103211494,0.21929220312719397,-0.02654043056801084,-0.17711412430192044,0.35662663109796505,-0.14170141852406257,0.16512481040401752,0.04049708179722806
Evobrutinib.1,-0.019857536769739614,-0.019857536769737043,1.0481995575696959,-0.011463247562451661,-0.011463247562451661,-0.011463247562451661,1.5557129835777153,0.6701790919877091,2.809725676439105,0.910277042182325,2.3868428925414578,1.0816699686624849,0.2169082330833307,-0.11139318627295854,-0.08510654771037174
Evobrutinib.2,-0.019857536769739614,-0.019857536769737043,0.8786800303671214,4.143145190428957,3.1044930809311047,3.104493080931104,0.14347421863349816,-0.14025608173773493,0.13519346367648236,-0.11810382293663915,-0.2619024999484316,0.3438175321343252,-0.18622258685690168,0.1738635281319581,0.15541104070843637
Evobrutinib.3,-0.019857536769739614,-0.019857536769737043,1.0039786415103542,-0.011463247562451661,-0.011463247562451661,-0.011463247562451661,0.19385308556172065,-0.05520993617240798,0.12245421853626588,-0.08206853666609648,-0.10700591007152019,0.42043044480364283,-0.1646659413188238,0.21630872852481225,0.1654326068925534
Exemestane,-0.019857536769739614,-0.019857536769737043,-0.16205855415517093,-0.011463247562451661,-0.011463247562451661,-0.011463247562451661,0.08675257381419565,-0.09170049623387332,0.26775170934812825,0.014943128818686471,0.015134655197395557,0.07675990279806048,-0.137949665682386,0.08335538023543096,0.0491824391567961
Exemestane.1,-0.019857536769739614,-0.019857536769737043,-0.7174808707316123,-0.011463247562451661,-0.011463247562451661,-0.011463247562451661,-0.6501257556146383,-0.38133819710406713,-0.5644709916456521,-0.3200583828802461,-0.3601363009538097,-0.6403079580532498,-0.2931047336061524,-0.21251263426769923,-0.2634904257876544
Exportin (mg/ml),-0.019857536769739614,1.7793771341167948,-0.027948172945829994,-0.011463247562451661,-0.011463247562451661,-0.011463247562451661,-0.49219673182310697,-0.466461993456785,-0.6533591770207595,-0.4811682017563399,-0.6547348011208666,-0.5380768474566524,-0.2960713656626502,-0.19378681056496952,-0.2234041610511864
Exportin (mg/ml).1,-0.019857536769739614,-0.019857536769737043,0.08510952144968797,-0.011463247562451661,-0.011463247562451661,-0.011463247562451661,-0.46567993973458355,-0.4709054215181462,-0.5798281354758491,-0.4965478955297851,-0.736539109939519,-0.2951873293725383,-0.3100741827250903,-0.1844238987136046,-0.21137828163024602
Extatecan Mesylate,-0.019857536769739614,-0.019857536769737043,0.6788099229876842,-0.01146324756245166,-0.01146324756245166,-0.01146324756245166,1.1232004122604213,0.8286590442487475,1.4094158741134226,0.7364126151671049,1.211210045378924,1.0913774933487654,0.4645568166939858,1.4174662867010224,1.4426255416905762
Extatecan Mesylate.1,-0.019857536769739614,-0.019857536769737043,0.21758938720880425,-0.011463247562451661,-0.011463247562451661,-0.011463247562451661,0.5757312269406925,0.4049000930886214,0.7116745458453854,0.3267303576941562,0.17468127309477696,0.48194979656477205,0.06694908562129183,0.37499076411115045,0.3898966007192808
F.,-0.019857536769739614,-0.019857536769737043,0.0054631638236325225,-0.011463247562451661,-0.011463247562451661,-0.011463247562451661,-0.09931986375967221,-0.2634873619953356,-0.09353902538805445,-0.3060161786895496,-0.2200472833351434,-0.6218780469298241,-0.2890867761641263,-0.2525740075796662,-0.2784368759251089
Fedratinib,-0.019857536769739614,-0.019857536769737043,0.9966535711652458,-0.01146324756245166,-0.01146324756245166,-0.01146324756245166,0.8492122107175479,1.068444043208627,0.6106347731044088,0.9959739284976397,-0.10595976414356612,1.2395481554171592,1.2660352247270468,-0.034617309091766565,0.011935618172494583
Fenebrutinib,-0.019857536769739614,-0.019857536769737043,0.9907777082727528,-0.011463247562451661,-0.011463247562451661,-0.011463247562451661,-0.08221451605297089,-0.2887146968581798,-0.24817976720775592,-0.3555299620992124,-0.6150502666400284,0.2795303562036045,-0.2888008417781815,0.356128212171861,0.2783422525669383
Floxuridine,-0.019857536769739614,-0.019857536769737043,0.06454524493084975,-0.011463247562451661,-0.011463247562451661,-0.011463247562451661,0.3224814087593066,0.1553159700706686,0.4980826984050629,0.25511306492125174,0.424705092991087,0.49438486523522396,-0.017733984880084756,0.6507478384281428,0.6725238558088737
Fludarabine phosphate,-0.019857536769739614,-0.019857536769737043,0.06803555354195077,-0.011463247562451661,-0.011463247562451661,-0.011463247562451661,-0.052677500548284524,-0.24649010124792792,0.08297395191062419,-0.18706113081497935,0.07903462585317435,0.05428355933356031,-0.21642783593174902,0.059011809421882236,0.045173812683149316
Fluorouracil,-0.019857536769739614,-0.019857536769737043,-0.1947529412379028,-0.011463247562451661,-0.011463247562451661,-0.011463247562451661,-0.22439639292417193,-0.2445392450711948,-0.21055969176441133,-0.2904185890571247,-0.43340003769468816,-0.07477415475292427,-0.22732852351837637,-0.06333023876928554,0.001078921473034519
Flupirtine,-0.019857536769739614,-0.019857536769737043,1.3827083593414426,-0.011463247562451661,-0.011463247562451661,-0.011463247562451661,0.5414337589022716,0.2036488296285534,0.5412836204820725,0.111029848035388,0.009063640281571392,0.23989465375007737,-0.06923879603098564,0.7968092633094349,0.6604979763879335
Fruquintinib,-0.019857536769739614,-0.019857536769737043,-0.2822784279280299,-0.011463247562451661,-0.011463247562451661,-0.011463247562451661,-0.4007097101381028,-0.4304671810197263,-0.5424556492775409,-0.4200027141197774,1.5383417817861589,-0.30340448719826946,-0.27578132206603007,-0.6095000967655702,-0.5340727127588137
Fulvestrant,-0.019857536769739614,-0.019857536769737043,0.19239105917045998,-0.011463247562451661,-0.011463247562451661,-0.011463247562451661,-0.36184212942560684,-0.4520863349781821,-0.5012438234188142,-0.4803575134160422,-0.6089449291855408,-0.25821011915674774,-0.3114811943314927,-0.3573256709021428,-0.3262922405414544
G,-0.019857536769739614,-0.019857536769737043,-0.09742257938296169,-0.011463247562451661,-0.011463247562451661,-0.011463247562451661,-0.03550519432745509,-0.282314913085232,0.12177804583205822,-0.31042994410380376,0.14046503542173583,-0.10885119161845665,-0.25394415407906096,0.09271829208679581,0.02379447149036636
G.1,-0.019857536769739614,-0.01985753676973704,-0.024595615323838242,-0.011463247562451661,-0.011463247562451661,-0.011463247562451661,-0.015668009002377494,-0.186036436909681,0.050398137597436894,-0.21746629937637194,-0.2535929287447928,-0.2099538292801375,-0.26597777326072397,-0.1745319080338134,-0.1636085269299323
Gefitinib,-0.019857536769739614,-0.019857536769737043,0.03118439639385021,-0.011463247562451661,-0.011463247562451661,-0.011463247562451661,0.014470414874220834,-0.10743939279846663,0.0843489324082225,-0.09459771881293468,-0.17368417653019858,-0.05423126018859614,-0.1529793321164859,0.1189344452706175,0.09194112154236198
Gefitinib.1,-0.019857536769739614,-0.019857536769737043,0.01888583896613868,-0.011463247562451661,-0.011463247562451661,-0.011463247562451661,-0.09177024737495808,-0.35373763683862514,0.02375073132846842,-0.3948564374947943,0.4572553446114898,-0.41336939339555506,-0.25610418339470603,-0.10577543916213963,-0.17596874777969923
Gemcitabine hydrochloride,-0.019857536769739614,-0.019857536769737043,0.033806971564794994,-0.011463247562451661,-0.011463247562451661,-0.011463247562451661,0.1914321067391524,0.05592354400279875,0.35249853113864116,0.061483734562444034,0.12259499493749848,0.061292311596683975,-0.06082045845601874,0.10769895104897963,0.060540214165462104
Gemcitabine.1,-0.019857536769739614,-0.019857536769737043,-0.01267120363676428,-0.011463247562451661,-0.011463247562451661,-0.011463247562451661,0.09248958744973332,-0.09008513235739428,0.14781552656022148,-0.10512402291479939,0.32873505391688346,-0.09048342706682215,-0.08173165633589395,0.1532651220589554,0.08058334653369606
Gilteritinib,-0.019857536769739614,-0.019857536769737043,-0.10549480681910905,-0.011463247562451661,-0.011463247562451661,-0.011463247562451661,-0.12295905547546727,-0.12832046876245393,-0.2698008836371388,-0.1553879950668817,-0.1093725885902084,-0.024746164460972362,-0.23451487798889986,-0.024630203116977358,-0.016959897658376133
Glasdegib,-0.019857536769739614,-0.019857536769737043,-0.46052107512351964,-0.01146324756245166,-0.01146324756245166,-0.01146324756245166,-0.4301782256479123,-0.4674108756232093,-0.2115699407105065,-0.4875153053376982,0.2104474910609955,-0.4154236828519879,-0.2843660217618125,0.3804717829854097,0.33657868717019607
Grazoprevir,-0.019857536769739614,-0.019857536769737043,1.0935691644023398,-0.011463247562451661,-0.011463247562451661,-0.011463247562451661,0.029239608472134852,-0.19041690448939175,-0.1654720523161576,-0.28544880298390246,-0.548852204972299,0.05718373268381838,-0.2739602643233785,0.2631232877816366,0.1774584863134938
Hydroxyurea,-0.019857536769739614,-0.019857536769737043,-0.934320091958803,-0.011463247562451661,-0.011463247562451661,-0.011463247562451661,-0.74353647965278,-0.31659026065368057,-0.6536701179256129,-0.3659893046704238,-1.1011086303513744,-0.25168472911866707,-0.31133581152131334,-0.5626855375087457,-0.48797350831187547
Ibrutinib,-0.019857536769739614,-0.019857536769737043,-0.22021962256769184,-0.011463247562451661,-0.011463247562451661,-0.011463247562451661,-0.059596966523119486,-0.0376075613788223,-0.18240246078528838,0.0212506926589001,-0.29618484452740196,0.33995063433398115,-0.006753620145350414,0.2855942762249124,0.27366552168101704
Idarubicin hydrochloride,-0.019857536769739614,-0.019857536769737043,-0.215789707297778,-0.01146324756245166,-0.01146324756245166,-0.01146324756245166,0.3162968522280163,0.11889178173398252,0.60014086754296,0.19966468717805363,-0.3137633668461388,0.8804704424883307,-0.05952960598277471,0.8283310665423632,0.8958377556116145
Idelalisib,-0.019857536769739614,-0.019857536769737043,-0.1426117708107379,-0.011463247562451661,-0.011463247562451661,-0.011463247562451661,-0.16288478915754445,-0.1669797890325002,-0.3102405201687906,-0.1599516333072939,-0.040104712626973314,-0.040455436774870276,-0.22143943489870782,0.14140543371389322,0.14806189217341728
Ifosfamide,-0.019857536769739614,-0.019857536769737043,-0.279651996885669,-0.011463247562451661,-0.011463247562451661,-0.011463247562451661,-0.5148365159115564,-0.4719587050800314,-0.5875936786410815,-0.5195195978437519,-0.5655217429652268,-0.5723955654347064,-0.31562980894541676,-0.5988887966673566,-0.5293959818728923
Imatinib,-0.019857536769739614,-0.019857536769737043,-0.7337402579116504,-0.011463247562451661,-0.011463247562451661,-0.011463247562451661,-0.6080621393514406,-0.43015115112261265,-0.6564056740083338,-0.3690065228518143,-0.8929620433390096,-0.12552718838244065,-0.29887984184294053,-0.20377391653975868,-0.2073696551565992
Imiquimod,-0.019857536769739614,-0.019857536769737043,-0.5228143823265123,-0.011463247562451661,-0.011463247562451661,-0.011463247562451661,-0.5761983246432317,-0.3973553484128856,-0.5527793377693028,-0.4874517529899517,-0.3403797782370871,-0.6076810078628464,-0.2879310177191253,-0.2668175230056155,-0.2674990522613013
Infigratinib,-0.019857536769739614,-0.019857536769737043,-0.9239929314671357,-0.011463247562451661,-0.011463247562451661,-0.011463247562451661,-0.19122253212566154,0.09757008822149522,-0.06579942388564446,0.18020606445883347,-0.15032618101274295,-0.12238533391966097,0.1885327407911474,-0.5789145847177782,-0.507348536267835
Irinotecan hydrochloride,-0.019857536769739614,-0.019857536769737043,0.04928843751618596,-0.011463247562451661,-0.011463247562451661,-0.011463247562451661,0.05564275745116557,-0.05231424385660139,0.08272328754177662,0.003156792993680784,0.1574433035508672,0.16013988661798026,-0.14623941467194154,0.33615400022228265,0.3418121717330127
Ivosidenib,-0.019857536769739614,-0.019857536769737043,-0.3011035226242527,-0.011463247562451661,-0.011463247562451661,-0.011463247562451661,-0.5074525363214029,-0.49899562504476747,-0.6192797270079125,-0.4480178779810003,1.5383417817861589,-0.6096144567630184,-0.29038808890299783,-0.5814113612114754,-0.5046761186187372
Ixabepilone,-0.019857536769739614,-0.019857536769737043,-0.17782582176795855,-0.011463247562451661,-0.011463247562451661,-0.011463247562451661,0.45092952055275676,0.3427301811005906,0.5433847363438689,0.267628223903899,0.12595634669773653,0.5966159758318212,-0.0732809145151937,1.7162472071134662,1.5985165712212852
Ixazomib citrate,-0.019857536769739614,-0.019857536769737043,2.9121928192594795,-0.011463247562451661,-0.011463247562451661,-0.011463247562451661,2.944888175926009,3.5458054367731155,1.6480603994512077,3.3002261521696674,2.104832367262614,2.4718197278861913,4.115896399973294,0.5608638846550399,0.6103901454673484
Lapatinib,-0.019857536769739614,-0.019857536769737043,-1.1392218567618213,-0.011463247562451661,-0.011463247562451661,-0.011463247562451661,-0.693666134762543,-0.356649965660559,-0.5063999549474005,-0.4067089442634892,-0.4960481070986236,0.26986311170274424,-0.31471772005479853,-0.47529836022934013,-0.44521482592630945
Larotrectinib,-0.019857536769739614,-0.019857536769737043,-1.2818411975892618,-0.01146324756245166,-0.01146324756245166,-0.01146324756245166,-0.8058586330231812,-0.26029439114677705,-0.5919794635401187,-0.3332901234467575,-0.8988786979842812,-0.35564788768833516,-0.3050162016736124,-0.47737900730742133,-0.4436559156310025
Lenalidomide,-0.019857536769739614,-0.019857536769737043,-0.25848732464111274,-0.011463247562451661,-0.011463247562451661,-0.011463247562451661,-0.5204069760840156,-0.4701260002403923,-0.5793130575420727,-0.4418541641992197,-0.5508415946333407,-0.30074599496053295,-0.3139544900601634,-0.49652096042576727,-0.46659416711909246
Lenvatinib,-0.019857536769739614,-0.019857536769737043,-0.8534639416217153,-0.011463247562451661,-0.011463247562451661,-0.011463247562451661,-0.5067565040894282,-0.278576667410919,-0.38103558397805576,-0.30335742124915993,-0.4222527033477718,-0.27005249367030165,-0.2770116157342485,-0.14884483367841803,-0.07107635505260802
Letrozole,-0.019857536769739614,-0.019857536769737043,0.020362084844797186,-0.011463247562451661,-0.011463247562451661,-0.011463247562451661,-0.4167218950085804,-0.45173637500363745,-0.5492769583245823,-0.4838825099442053,-0.5565353076072933,-0.3546408830528289,-0.3158756204274127,-0.5139983958816484,-0.46191743623317116
Levofloxacin,-0.019857536769739614,-0.019857536769737043,0.8226914243298038,-0.011463247562451661,-0.011463247562451661,-0.011463247562451661,0.02847540711451252,-0.21253612725241824,-0.03346841258018722,-0.3039078343926867,-0.11173922916464459,-0.6026057044998947,-0.2850197543246562,-0.26119977589479665,-0.28553787139271186
Lomustine,-0.019857536769739614,-0.019857536769737043,0.015352590746411774,-0.011463247562451661,-0.011463247562451661,-0.011463247562451661,0.03208770258782515,0.13539135158834514,-0.3524644426488175,0.28146775603692126,0.14523268228721367,-0.06704035915223604,-0.05461941206248787,0.14639898670128784,0.1313592818665556
Lorlatinib,-0.019857536769739614,-0.019857536769737043,-0.773850727767355,-0.011463247562451661,-0.011463247562451661,-0.011463247562451661,-0.40958016496193944,-0.2551172700122802,-0.17521472422646805,-0.154777180811468,-0.7588680979009589,0.09198581288691539,-0.25216877555051675,0.036540820978606545,0.10530320978785133
Mechlorethamine hydrochloride,-0.019857536769739614,-0.019857536769737043,-0.6369798315318502,-0.01146324756245166,-0.01146324756245166,-0.01146324756245166,-0.4439116736466646,-0.4019825728355301,-0.4123074521127342,-0.38578377873303316,-0.5392940644401674,-0.4472853095194064,-0.2897763620624844,-0.10015769205132079,-0.16305206247572626
Megestrol acetate,-0.019857536769739614,-0.019857536769737043,-0.43742071721819,-0.011463247562451661,-0.011463247562451661,-0.011463247562451661,-0.3358579495291591,-0.16055816281354676,-0.3592717745292155,-0.24152987624927924,-0.2495546578765158,-0.6158981656885774,-0.17099884840127494,0.24502165820233143,0.16944123336620034
Melphalan hydrochloride,-0.019857536769739614,-0.019857536769737043,0.46556930927928336,-0.011463247562451661,-0.011463247562451661,-0.011463247562451661,0.48724790949866964,0.31047342134279227,0.5667200914119749,0.25891246368523235,0.45049833163657504,0.12968806644027037,0.12028726760460422,0.26312328778163663,0.2275663172340788
Melphalan.1,-0.019857536769739614,-0.019857536769737043,-0.4394229400015087,-0.011463247562451661,-0.011463247562451661,-0.011463247562451661,-0.1581455204459583,-0.04972594419732203,0.03267247191466687,-0.005622141841285273,-0.44166623488548434,0.00087203346630736,-0.11589558033824002,0.18447482823017167,0.15273862305933855
Mercaptopurine,-0.019857536769739614,-0.019857536769737043,-0.5123164921412077,-0.011463247562451661,-0.011463247562451661,-0.011463247562451661,-0.1539717582828271,0.021665288922887976,-0.0228116450904498,-0.11282774787767627,-0.10405613045491775,-0.15525396522258594,-0.09048523587851649,0.18634741060044457,0.19148867897125763
Methotrexate,-0.019857536769739614,-0.019857536769737043,0.09841034516136891,-0.011463247562451661,-0.011463247562451661,-0.011463247562451661,0.2851298111461809,0.11489420214007781,0.4064090099690875,0.1781359704925751,-0.08251603947637849,0.32931666538303483,-0.03204333728054233,0.41230568328005035,0.3651958261626191
Methotrexate.1,-0.019857536769739614,-0.019857536769737043,-0.6368200391970552,-0.011463247562451661,-0.011463247562451661,-0.011463247562451661,0.19141991619830998,0.02602934847437791,0.6649184865454956,0.04300706919688811,-0.18695806050477323,0.49148469188496574,-0.12587540104614456,0.6969382035615428,0.6123944587041719
Methoxsalen,-0.019857536769739614,-0.019857536769737043,0.8629145380303002,-0.011463247562451661,-0.011463247562451661,-0.011463247562451661,0.9673878961096152,1.0349210823829722,0.6765523489672406,1.0513317230495995,0.526849038708601,0.32399968090756165,0.445347833010339,1.796768249035204,1.8229996537455062
Mitomycin,-0.019857536769739614,-0.019857536769737043,0.004283104516579254,-0.011463247562451661,-0.011463247562451661,-0.011463247562451661,0.6273500592624153,0.49472212766465834,0.8375285943287943,0.4785897878980296,0.5939389015167311,0.4153551414406912,0.28120907007416335,0.18447482823017164,0.17745848631349379
Mitomycin.1,-0.019857536769739614,-0.019857536769737043,0.6096649090541716,-0.01146324756245166,-0.01146324756245166,-0.01146324756245166,1.4527217889144834,1.3940414063953341,1.4465170276011214,1.325017449598538,1.190041481401542,1.0806629640269787,1.6592911146162683,0.29308460570600425,0.2788990062438337
Mitotane,-0.019857536769739614,-0.019857536769737043,-0.11205018827013882,-0.011463247562451661,-0.011463247562451661,-0.011463247562451661,-0.44314082195064725,-0.4404853422066332,-0.5474162667260521,-0.48303185287668143,-0.5504985642016559,-0.46122225367481323,-0.307312328885787,-0.5814113612114754,-0.5180382068642265
Mitoxantrone,-0.019857536769739614,-0.019857536769737043,-0.14698857887020503,-0.011463247562451661,-0.011463247562451661,-0.011463247562451661,0.3331994441365758,0.16460002450187008,0.5631143314716163,0.33493368453972244,0.36653314738054454,0.16594023331849633,0.018586979869390285,0.12080702764089046,0.12735065539290877
Mitoxantrone.1,-0.019857536769739614,-0.019857536769737043,0.6197851626808516,-0.011463247562451661,-0.011463247562451661,-0.011463247562451661,1.582592742514299,1.4702391180355725,1.755607682405204,1.564602291912245,1.0704962999236862,1.7027904278427568,1.4719697521485762,0.7293962979796077,0.738666192624046
Nefazodone,-0.019857536769739614,-0.019857536769737043,0.8737970724779444,-0.011463247562451661,-0.011463247562451661,-0.011463247562451661,0.6283939617865136,0.2777833610657359,0.8670000826441143,0.3579419386758313,0.7672199983658469,0.036157475894447365,0.05779679117314131,0.07211988601379309,0.0732341979986769
Nelarabine,-0.019857536769739614,-0.019857536769737043,-1.3526927258581323,-0.01146324756245166,-0.01146324756245166,-0.01146324756245166,-0.8313890504061233,-0.2351871602499834,-0.6003131659080444,-0.3071845992005391,-0.9765899675791085,-0.2626006593675551,-0.3016993817078694,-0.5159750106058255,-0.4740546663894907
Neratinib,-0.019857536769739614,-0.019857536769737043,-0.004930977079442868,-0.011463247562451661,-0.011463247562451661,-0.011463247562451661,-0.331252176874416,-0.39517767718130514,-0.5059791322668677,-0.4080651044556781,1.5363523201618807,-0.29542901048505976,-0.28199052244723183,-0.6045065437781757,-0.5340727127588137
Nilotinib,-0.019857536769739614,-0.019857536769737043,-0.6238152459823576,-0.01146324756245166,-0.01146324756245166,-0.01146324756245166,-0.6297185075048523,-0.39486090143037905,-0.5962968241300958,-0.4200608972341833,-0.2795096072641939,-0.5600698286961096,-0.31357822769820015,-0.5254419548110943,-0.4678190252082623
Niraparib hydrochloride,-0.019857536769739614,-0.019857536769737043,-0.3138710785442821,-0.011463247562451661,-0.011463247562451661,-0.011463247562451661,-0.48880369803245,-0.4319645730704847,-0.4044719012038776,-0.34168997163915155,-0.05617403797270965,-0.10812614828089216,-0.301261508084085,-0.311759499892167,-0.26349042578765447
Olanzapine,-0.019857536769739614,-0.019857536769737043,0.8031006686924114,-0.011463247562451661,-0.011463247562451661,-0.011463247562451661,0.03679633072708308,-0.1981502873972108,-0.027165693676295614,-0.2934763715020664,-0.02304069048808255,-0.6308823946649109,-0.2839749285059502,-0.3304853235948967,-0.3476715817342373
Olaparib,-0.019857536769739614,-0.019857536769737043,-1.33772443222868,-0.01146324756245166,-0.01146324756245166,-0.01146324756245166,-0.8048315099433652,-0.23929776528766217,-0.540073079162725,-0.30750702427568016,-1.045481661730059,-0.15742909523527945,-0.30190427626889427,0.22841809451924414,0.30867419288419917
Omacetaxine mepesuccinate,-0.019857536769739614,-0.019857536769737043,-0.4590999017343581,-0.011463247562451661,-0.011463247562451661,-0.011463247562451661,1.8895437224099918,2.110407766727637,1.9530573546649468,2.625376521102661,1.7045570596356523,1.8777675533083276,2.2271090740186072,0.35550401804843673,0.3605190952766977
Orelabrutinib,-0.019857536769739614,-0.019857536769737043,1.047446736766805,-0.011463247562451661,-0.011463247562451661,-0.011463247562451661,0.3546434105792642,0.05628469960984688,0.3559069073728134,0.00741880549742865,-0.04279725638274723,0.36242697779848126,-0.11975308088128667,0.4129298774034747,0.37187687028536365
Osimertinib,-0.019857536769739614,-0.019857536769737043,0.13832859981014994,-0.011463247562451661,-0.011463247562451661,-0.011463247562451661,0.0696309295135018,0.26727448524431313,-0.10239696483070462,0.2719507396776141,0.02593899313161157,0.4073796647274815,0.507573735004198,-0.3342304883354427,-0.2955594375768289
Oxaliplatin,-0.019857536769739614,-0.019857536769737043,0.023845585581258526,-0.011463247562451661,-0.011463247562451661,-0.011463247562451661,-0.061529340025844634,-0.15467894701193888,-0.03621499983134889,-0.14298948205288706,-0.505086021357968,0.3005566129929755,-0.22767927928878937,0.24689424057260417,0.28235087904058503
Paclitaxel,-0.019857536769739614,-0.019857536769737043,-0.030446112213282472,-0.011463247562451661,-0.011463247562451661,-0.011463247562451661,-0.40894577720442943,-0.4999541173780138,-0.43977266285320216,-0.5288046058543524,-0.5440502722039874,-0.40756904669503885,-0.31876798992047645,-0.5807871670880512,-0.516033893627403
Pacritinib,-0.019857536769739614,-0.019857536769737043,1.0061323685139536,-0.011463247562451661,-0.011463247562451661,-0.011463247562451661,0.8221193907348886,1.1236069762261032,0.6002660550808882,0.9970745455622192,-0.12827163270519396,0.9755719602655436,1.497466302998218,-0.2443465345623399,-0.20135671544612901
Palbociclib,-0.019857536769739614,-0.019857536769737043,-0.6172467706882153,-0.011463247562451661,-0.011463247562451661,-0.011463247562451661,-0.6456063727716913,-0.3888984930984124,-0.5917182253588608,-0.3452249476066237,-0.18922185187545382,-0.5330015440937008,-0.303711823600001,-0.384790212332813,-0.36170177439200113
Panobinostat,-0.019857536769739614,-0.019857536769737043,0.6827865558442051,-0.011463247562451661,-0.011463247562451661,-0.011463247562451661,2.2095882832030975,2.4589599594172324,1.9813730279158233,2.4013086556360013,1.139403985494327,2.127424142543044,2.809003412202668,0.8092931457779213,0.8823086412630566
Pazopanib hydrochloride,-0.019857536769739614,-0.019857536769737043,-0.7686255312877535,-0.011463247562451661,-0.011463247562451661,-0.011463247562451661,-0.326388214961917,-0.14742013607538623,-0.16232311678919162,-0.1337524507084773,0.06943077863446556,-0.22461644451625834,-0.16168163853607354,0.21193936966084187,0.18280332161168955
"Pemetrexed, Disodium salt, Heptahydrate",-0.019857536769739614,-0.019857536769737043,-0.4636443694467965,-0.011463247562451661,-0.011463247562451661,-0.011463247562451661,-0.33828720734042644,-0.48790002051232095,-0.05971294828714387,-0.4730515978836193,0.37325585351786555,-0.25482658358144666,-0.2864680630893505,0.4959476958189099,0.47676926301245504
Pemigatinib,-0.019857536769739614,-0.019857536769737043,0.0992379802988509,-0.011463247562451661,-0.011463247562451661,-0.011463247562451661,0.060676369453783706,0.05079584838031386,-0.1163261422955311,0.09551193266112475,1.5383417817861589,0.045583039282786064,0.10565171566048079,-0.2780530172272534,-0.21338259486706948
Pentostatin,-0.019857536769739614,-0.019857536769737043,0.10429280878183829,-0.011463247562451661,-0.011463247562451661,-0.011463247562451661,0.5038711718740602,0.3228587386972424,0.7204107568056468,0.2885232512311383,0.3884505298335755,0.2529454338262387,0.15758363993346602,0.39794921844129094,0.3999372556008914
Pentostatin.1,-0.019857536769739614,-0.019857536769737043,-0.11142963313298171,-0.011463247562451661,-0.011463247562451661,-0.011463247562451661,-0.2818325553881117,-0.4489740755829971,-0.301640899732302,-0.42279951686699935,0.17236360628802166,-0.3901680065934903,-0.2823489702960935,-0.0009108264268529652,-0.04702459621072711
Pexidartinib,-0.019857536769739614,-0.019857536769737043,-0.04806392024782445,-0.011463247562451661,-0.011463247562451661,-0.011463247562451661,-0.13512379699842508,-0.1134506216028881,-0.30722169432999535,-0.1291044169835111,1.5383417817861589,-0.20890717220236038,-0.026099613021038217,0.13391510423280145,0.213536124576315
Pipobroman,-0.019857536769739614,-0.019857536769737043,-0.12252111325154512,-0.011463247562451661,-0.011463247562451661,-0.011463247562451661,1.2674406678830827,1.0266920173244518,1.8358945780215912,1.5727360872894074,1.2870634105964853,1.339785396835454,0.7135139591756362,0.2237990580059041,0.2355835701813724
Pipobroman.1,-0.019857536769739614,-0.019857536769737043,-0.10642736454109218,-0.011463247562451661,-0.011463247562451661,-0.011463247562451661,-0.03436329520180394,-0.24615177419926423,0.050722681752163136,-0.22146745339352783,0.4092360300125967,-0.18498074206273124,-0.192621667325867,0.10769895104897964,0.03314793326220894
Plerixafor,-0.019857536769739614,-0.019857536769737043,-0.19937517576294697,-0.011463247562451661,-0.011463247562451661,-0.011463247562451661,-0.2856829916499216,-0.3688898795291652,-0.2850022246589598,-0.363054333742347,-0.10415903657505152,-0.2234080389536508,-0.25369183313720406,0.5321509549775209,0.5763168204413506
Plicamycin,-0.019857536769739614,-0.019857536769737043,2.9129301614099075,-0.011463247562451663,-0.011463247562451663,-0.011463247562451663,3.3475647458511126,3.7618226908335792,2.384777893608996,3.4954151042078925,2.131555299711379,3.170416246566215,4.080688653447953,0.9105017643617229,1.0126844451440458
Pomalidomide,-0.019857536769739614,-0.019857536769737043,-0.9973799606628505,-0.011463247562451661,-0.011463247562451661,-0.011463247562451661,-0.7518565219449599,-0.3259585815584081,-0.6173131453998076,-0.3606591348008092,-0.9316690390249688,-0.32370570065007603,-0.31199236062359426,-0.611372679135843,-0.5340727127588137
Ponatinib,-0.019857536769739614,-0.019857536769737043,-0.8999642715879481,-0.011463247562451661,-0.011463247562451661,-0.011463247562451661,0.10765271501708466,0.35440532995182916,0.3050200823459927,0.477454481551222,0.04422060706790698,0.13403832646565744,0.35730408148623877,-0.3473385649273536,-0.284201662568163
Pralatrexate,-0.019857536769739614,-0.019857536769737043,0.11993090750346323,-0.011463247562451661,-0.011463247562451661,-0.011463247562451661,1.5454356235061706,1.305830471205569,2.0825772443514325,1.4179423655514036,1.1295943495869554,1.7143911212437892,0.6468101913432299,1.0670853187521676,1.1869642532602136
Procarbazine hydrochloride,-0.019857536769739614,-0.019857536769737043,-0.18986363128088612,-0.011463247562451663,-0.011463247562451663,-0.011463247562451663,-0.41503199574670563,-0.43674296567908827,-0.5093555392307377,-0.46276196584484414,0.13660636993811645,-0.53288070353744,-0.2920787890961927,-0.48871853388296316,-0.44688508695699575
Proglitazone,-0.019857536769739614,-0.019857536769737043,1.1520199041557475,-0.011463247562451661,-0.011463247562451661,-0.011463247562451661,0.15745763193375298,-0.06162448813857079,-0.005294832226675773,-0.14676601708720582,-0.1274483981367712,-0.5262344729430987,-0.24818261351861512,-0.2899127055723156,-0.3015723772872991
Raloxifene,-0.019857536769739614,-0.019857536769737043,-0.43566430796087957,-0.011463247562451661,-0.011463247562451661,-0.011463247562451661,-0.45417846792345173,-0.4726868914832507,-0.26478103621258947,-0.5030214099001667,0.21757034376065992,-0.27996141928368334,-0.2906067887167994,-0.0864254213359856,-0.11717555949954615
Regorafenib,-0.019857536769739614,-0.019857536769737043,1.334284127867802,-0.01146324756245166,-0.01146324756245166,-0.01146324756245166,1.0056197524640513,1.2162022993193695,0.6093145507779547,1.1263604324726033,0.4164103371897856,1.0251165883324524,1.5585952794550086,-0.14603596012300857,-0.11082856758293873
Ribociclib,-0.019857536769739614,-0.019857536769737043,-0.19146081143937668,-0.01146324756245166,-0.01146324756245166,-0.01146324756245166,-0.3985030656379575,-0.4212711916053466,-0.5252739740418734,-0.42904336059215575,-0.05541944499248725,-0.5470996089907888,-0.2903193954257697,-0.40746926548389695,-0.38441732440933296
Romidepsin,-0.019857536769739614,-0.019857536769737043,-0.19191771209422612,-0.01146324756245166,-0.01146324756245166,-0.01146324756245166,1.9785946527178788,2.053785586984727,2.230244473554292,2.234508631271989,1.6091300813144338,1.7328394461662642,2.0764269098657446,0.3688201593481557,0.4246571188550466
Rucaparib phosphate,-0.019857536769739614,-0.019857536769737043,-0.1634959907033405,-0.01146324756245166,-0.01146324756245166,-0.01146324756245166,1.0971212974893785,0.8049106977565906,1.714683366195998,1.1580815485395561,1.1452234849724332,1.1863984507551377,0.5685860538382522,0.4161548803745004,0.48545462037202297
Ruxolitinib,-0.019857536769739614,-0.019857536769737043,-0.8239219063377081,-0.01146324756245166,-0.01146324756245166,-0.01146324756245166,-0.5942618664978598,-0.3801710476491952,-0.4102490457614751,-0.35868715634127235,-1.180079821707948,-0.04577242125034345,-0.3148593580092935,-0.309886917521894,-0.24692143636324765
Sanofi-1,-0.019857536769739614,-0.019857536769737043,0.5563569100489384,-0.011463247562451663,-0.011463247562451663,-0.011463247562451663,0.04391816096618395,-0.08360604175176413,-0.06905286025326669,-0.18940698518449256,-0.35467653225516244,-0.47375514565271437,-0.2532454889728784,-0.3912177905206461,-0.4015485627417318
Sanofi-2,-0.019857536769739614,-0.019857536769737043,0.5800815705781446,-0.011463247562451663,-0.011463247562451663,-0.011463247562451663,0.05610896840035129,-0.06660561454282114,-0.06074195614812588,-0.17593037119673186,-0.16705063304882328,-0.38759237645147543,-0.24748052912241164,-0.34448510607741367,-0.36152997611455906
Sanofi-3,-0.019857536769739614,-0.019857536769737043,0.576465996552543,-0.011463247562451661,-0.011463247562451661,-0.011463247562451661,0.04422513846805006,-0.08107004430068276,-0.07254927466591236,-0.18917189265818932,-0.09629760485243231,-0.5982796125857597,-0.25164282170133967,-0.34565324079410786,-0.36003151336131495
Sanofi-4,-0.019857536769739614,-0.019857536769737043,0.7131700228168077,-0.011463247562451661,-0.011463247562451661,-0.011463247562451661,0.1393775305233799,-0.0031665798897920643,0.028843791400777113,-0.11823692485197598,-0.1569546718609574,-0.5047452555810403,-0.22608851367629862,-0.13662035655992608,-0.1605893312763682
Sanofi-5,-0.019857536769739614,-0.01985753676973704,0.5971276199741932,-0.011463247562451663,-0.011463247562451663,-0.011463247562451663,0.08579525817721136,-0.04682319281093244,-0.029038003588981665,-0.15465555652359805,0.05282196670983635,-0.5619618465484207,-0.23391183597348947,-0.2589170088148448,-0.28721131387298027
Sanofi-6,-0.019857536769739614,-0.01985753676973704,0.5340047577990332,-0.011463247562451663,-0.011463247562451663,-0.011463247562451663,0.09612665671625291,-0.022623656498832283,-0.02224117420157649,-0.13189767632474914,0.1814057708737003,-0.46666583301875014,-0.2216576424469649,-0.22446446555479074,-0.2534179564102213
Sanofi-7,-0.019857536769739614,-0.01985753676973704,0.5365511477123646,-0.011463247562451663,-0.011463247562451663,-0.011463247562451663,0.12389018175413087,0.009194328081963372,0.006708749042850413,-0.09597277998285977,-0.026866263306561517,-0.39187243386798726,-0.21251218564016824,-0.11704660161940172,-0.14643216985800328
Sanofi-8,-0.019857536769739614,-0.01985753676973704,0.6766396791630982,-0.011463247562451663,-0.011463247562451663,-0.011463247562451663,0.9428565650941415,0.8097666066924624,0.9876374993094734,0.8343242275215178,0.6185572198522058,0.7295977123452458,0.41990012756414735,0.7438492291828965,0.7487059798375887
Selinexor,-0.019857536769739614,-0.019857536769737043,-0.5039004283469621,-0.011463247562451661,-0.011463247562451661,-0.011463247562451661,0.85336478923737,0.7747452691832578,1.2430393860827387,0.9853165929589854,0.9661571444543279,0.9881393781166619,0.4967978468039926,0.7175366096345455,0.6959075102384803
Selpercatinib,-0.019857536769739614,-0.019857536769737043,-0.15107081109369538,-0.011463247562451661,-0.011463247562451661,-0.011463247562451661,0.2491076191108264,0.25838897200729116,0.17468001664212357,0.24382526055903725,1.5474996976867392,0.19228347458334055,0.2653004930867862,-0.15820774552978303,-0.08711086094719521
Selumetinib,-0.019857536769739614,-0.019857536769737043,-0.9831189820287982,-0.011463247562451661,-0.011463247562451661,-0.011463247562451661,-0.6482227846289026,-0.32327458706628853,-0.5061767420973516,-0.34902464735406624,-0.966808885757281,-0.013628833284983053,-0.3040904935541843,-0.388535377073359,-0.31159394347141606
Sirolimus,-0.019857536769739614,-0.019857536769737043,0.27203802205274763,-0.01146324756245166,-0.01146324756245166,-0.01146324756245166,0.04451796350413565,-0.07553537386572663,-0.051223396186622715,-0.18686791291653337,-0.24309493288316106,-0.12443962337609384,-0.20861920682385093,0.6484591266422535,0.607049623405976
Sitaxentan,-0.019857536769739614,-0.019857536769737043,1.5748375140264488,-0.011463247562451661,-0.011463247562451661,-0.011463247562451661,0.5262166450268303,0.2264971470575964,0.41770582604281703,0.1462950424502216,0.12163462329985254,0.3174742908694811,-0.07609675574572008,0.5908252025794074,0.5181917365734721
Sorafenib,-0.019857536769739614,-0.019857536769737043,0.17423674249374382,-0.011463247562451661,-0.011463247562451661,-0.011463247562451661,0.7603719931291784,0.9195252470970244,0.5220955852865699,0.8899173425956547,0.5791558365973312,0.49970184971069703,1.3005177856799084,-0.31363208226244,-0.29622754198910334
Sotorasib,-0.019857536769739614,-0.019857536769737043,-0.39353073534989436,-0.011463247562451661,-0.011463247562451661,-0.011463247562451661,-0.5445864063951669,-0.5130320624052835,-0.6264684004895159,-0.46178991139026865,1.5383417817861589,-0.6410330013908141,-0.2924316076442805,-0.6020097672844784,-0.5320683995219903
Streptozocin,-0.019857536769739614,-0.019857536769737043,0.36821668931735685,-0.011463247562451661,-0.011463247562451661,-0.011463247562451661,-0.2121829443137732,-0.3258146796310844,-0.33566916862673496,-0.3334603680473269,-0.07860591569900222,-0.392343136606184,-0.2560097869311625,0.09271829208679574,0.027134993551738713
Sunitinib,-0.019857536769739614,-0.019857536769737043,-0.8360843056180371,-0.011463247562451661,-0.011463247562451661,-0.011463247562451661,-0.44199246862094416,-0.2022253023803001,-0.26483819330891806,-0.23643069467717687,-0.3867355657951793,-0.45614695031186164,-0.2247056587673011,-0.5982646025439323,-0.5320683995219903
Talazoparib,-0.019857536769739614,-0.019857536769737043,-0.4734847890971122,-0.011463247562451661,-0.011463247562451661,-0.011463247562451661,-0.32859123406893653,-0.4265893041793397,-0.003547480783707987,-0.4320694466663023,0.16588099567695713,-0.1982732032514141,-0.2848494710610973,0.32242172950694753,0.2763379393301149
Tamoxifen citrate,-0.019857536769739614,-0.019857536769737043,-0.3314578963830645,-0.011463247562451661,-0.011463247562451661,-0.011463247562451661,0.14821915984897682,0.023219806748214302,0.34167498149801145,0.1557347994197839,0.03211288538227487,0.0615339927092055,-0.03701939130799332,0.21069098141399337,0.17545417307667038
Tamoxifen.1,-0.019857536769739614,-0.019857536769737043,-0.6249157072170531,-0.011463247562451661,-0.011463247562451661,-0.011463247562451661,-0.3448856309693178,-0.26102414180465167,-0.08331158158969496,-0.1595353457645635,-0.028082727941608234,-0.41119426338286136,-0.23174310867436296,-0.07394153886749903,-0.11116261978907598
Tazemetostat,-0.019857536769739614,-0.019857536769737043,-0.8115510826030696,-0.011463247562451661,-0.011463247562451661,-0.011463247562451661,-0.667858025543589,-0.39334582068169965,-0.577903826685036,-0.45030026462789025,-0.322098132898652,-0.6917860350203305,-0.3152285587864611,-0.5963920201736593,-0.5240511465746966
Temozolomide,-0.019857536769739614,-0.019857536769737043,0.44238717080150625,-0.011463247562451661,-0.011463247562451661,-0.011463247562451661,0.2842190375825346,0.14321072967031537,0.3192205964378209,0.07821717744891431,0.0656578118797555,-0.0892750215042146,-0.03368865780048554,0.3211733412600989,0.26364395549690006
Temozolomide.1,-0.019857536769739614,-0.019857536769737043,-0.16815590690710416,-0.011463247562451661,-0.011463247562451661,-0.011463247562451661,-0.3352978562663309,-0.5015729565924746,-0.35574750836960306,-0.48783649260298995,0.1321302559578921,-0.5728789276597493,-0.2899454370135956,-0.15258999841896406,-0.21872743016526514
Temsirolimus,-0.019857536769739614,-0.019857536769737043,-0.18033253457978093,-0.01146324756245166,-0.01146324756245166,-0.01146324756245166,-0.39978355607016797,-0.4084338425560267,-0.3608058158909677,-0.43904970008158,-0.45101853700889877,-0.21241154833392217,-0.2889559769986762,-0.20793521069592083,-0.1981275441201358
Teniposide,-0.019857536769739614,-0.019857536769737043,-0.2507204087628563,-0.011463247562451661,-0.011463247562451661,-0.011463247562451661,0.14987508873617145,0.029405559705596978,0.3003667514614014,0.19471231269477599,-0.06790447210911754,0.22394370032365796,-0.05318057012927605,0.156386092676077,0.08726439065644076
Teniposide.1,-0.019857536769739614,-0.019857536769737043,-0.13292494855513157,-0.011463247562451661,-0.011463247562451661,-0.011463247562451661,0.8937621429188037,0.8234399577509092,1.1577313436880654,0.9437693883364419,0.6375335761302264,1.1128468321777591,0.6641715108866668,0.6963140094381183,0.6638384984493059
Teriflunomide,-0.019857536769739614,-0.019857536769737043,0.8892554011975885,-0.011463247562451661,-0.011463247562451661,-0.011463247562451661,0.02581390895066717,-0.25791611785839685,0.02125824960950005,-0.30522648689348414,-0.34552470087598663,0.17319066669414157,-0.26709305042212866,-0.0289995619809476,-0.11116261978907596
Thalidomide,-0.019857536769739614,-0.019857536769737043,0.2707205830114184,-0.011463247562451661,-0.011463247562451661,-0.011463247562451661,-0.24003449513937936,-0.35598360353659614,-0.3308259885881437,-0.3685695806404315,-0.17944647112298773,-0.42932034682197445,-0.26217078342431865,-0.11825932163062614,-0.1438997359905248
Thioguanine,-0.019857536769739614,-0.019857536769737043,0.2329561328426823,-0.011463247562451661,-0.011463247562451661,-0.011463247562451661,0.5835217608388285,0.47432941378343096,0.6130790614310093,0.46339064905454463,0.6851069594109908,0.2783219506409969,0.27980568181008897,0.5539977492973722,0.5362305557048825
Thiotepa,-0.019857536769739614,-0.019857536769737043,0.2682080759398168,-0.011463247562451661,-0.011463247562451661,-0.011463247562451661,0.4094900539559512,0.2608869537331427,0.4746876536284802,0.3414171484342522,0.10619984753261859,0.22394370032365798,0.02212584794683124,0.3242943118772205,0.2302387348831767
Thiotepa.1,-0.019857536769739614,-0.019857536769737043,-0.552469431853271,-0.011463247562451661,-0.011463247562451661,-0.011463247562451661,-0.22213133723635617,-0.2215183103140097,0.033622210824771646,-0.08332092023728015,0.123486811778969,-0.11392649498140825,-0.19749289165304237,0.14515059845443917,0.1113161494983216
Tiranibulin,-0.019857536769739614,-0.019857536769737043,-0.0793854080684621,-0.011463247562451661,-0.011463247562451661,-0.011463247562451661,0.031873361314682845,0.06465872822542794,-0.1372083793712749,0.07647298885770004,0.23585198124856013,0.1263045308649693,-0.11494862462822712,0.4297831187359315,0.4286657453286934
Tivozanib,-0.019857536769739614,-0.019857536769737043,-1.2842568991497336,-0.011463247562451661,-0.011463247562451661,-0.011463247562451661,-0.742572606245252,-0.2531678214261125,-0.40855736916684454,-0.308337452640911,-0.7547693107226333,-0.46968109261306606,-0.3042911158831734,-0.5077564546474053,-0.4679303759436414
Tolcapone,-0.019857536769739614,-0.019857536769737043,1.0200993570087666,-0.011463247562451661,-0.011463247562451661,-0.011463247562451661,0.09301222374772643,-0.1698116898012658,0.02191031357144338,-0.28050955057257776,-0.08018368218793122,-0.5078667083914641,-0.2791905094656841,-0.2381045933280966,-0.25881369490173317
Tolebrutinib,-0.019857536769739614,-0.019857536769737043,0.12661422508635342,-0.01146324756245166,-0.01146324756245166,-0.01146324756245166,-0.19525849169695275,-0.286207513413864,-0.2881668349188275,-0.29920945223562034,-0.5955166927364306,-0.24709278798075848,-0.2771603771378715,-0.21813038137851817,-0.23943866694577365
Topotecan hydrochloride,-0.019857536769739614,-0.019857536769737043,-0.12091755255644022,-0.011463247562451661,-0.011463247562451661,-0.011463247562451661,0.24074920629583874,0.0853861320772216,0.40135083963658363,0.23394490483178113,0.07008248032334231,0.2696214305902227,-0.023896501997998865,0.26874103489245554,0.18347142602396405
Topotecan.1,-0.019857536769739614,-0.019857536769737043,0.6455149671952272,-0.011463247562451661,-0.011463247562451661,-0.011463247562451661,1.313639874238362,1.2200137332740917,1.4708717712344075,1.1800913071221657,0.9142620031024836,1.447091810795003,1.088535285106118,0.6844543210930564,0.6625022896247569
Trametinib,-0.019857536769739614,-0.019857536769737043,-0.2939591047562554,-0.011463247562451661,-0.011463247562451661,-0.011463247562451661,0.2417285966169606,0.25729373662567306,0.22048147070898563,0.3894444554659932,0.2651780993001423,0.7280905010435207,0.019068175159575467,0.854859316787897,0.9010155648067416
Tretinoin,-0.019857536769739614,-0.019857536769737043,-0.06923943802458767,-0.011463247562451661,-0.011463247562451661,-0.011463247562451661,-0.44417918631582987,-0.4785204807834158,-0.5343133953471729,-0.45220605114732704,-0.03648613154801927,-0.3843676598929742,-0.31443197880503665,-0.5289790548438321,-0.485969195075052
Triethylenemelamine,-0.019857536769739614,-0.019857536769737043,0.1750165010168651,-0.011463247562451661,-0.011463247562451661,-0.011463247562451661,0.7945110024295513,0.6598739336262849,0.9805106741976939,0.7915225237482592,0.8882287009870902,0.7445248166949833,0.6919136629706497,0.13391510423280126,0.1373722215770258
Trifluridine,-0.019857536769739614,-0.019857536769737043,-0.17114348569427965,-0.011463247562451661,-0.011463247562451661,-0.011463247562451661,-0.2007793368598105,-0.2726848073414035,-0.173256913705308,-0.27784453602283904,-0.45761550069228984,-0.04335561012512839,-0.2459120897129566,0.0078278913010876,0.08726439065644073
Trilaciclib dihydrochloride,-0.019857536769739614,-0.019857536769737043,0.15482252311684105,-0.011463247562451661,-0.011463247562451661,-0.011463247562451661,-0.14211612211883104,-0.06229661015973642,-0.3595211764968762,-0.10045374668242957,1.5383417817861589,-0.25990188694439836,0.01337819473645777,0.09084570971652298,0.1874800524976107
Troglitazone,-0.019857536769739614,-0.019857536769737043,1.0251140926952684,-0.011463247562451661,-0.011463247562451661,-0.011463247562451661,0.158658796797647,-0.05585650276324265,0.021042010401231027,-0.14028039246452356,-0.5041256271500341,-0.5881048377486042,-0.24556351028802004,-0.18379970459018027,-0.20402913309522688
Trovafoxacin,-0.019857536769739614,-0.019857536769737043,1.1900236747586757,-0.011463247562451661,-0.011463247562451661,-0.011463247562451661,0.28682850765698703,0.008877533428615334,0.22567296158861574,-0.07006986511629186,0.05629409126233725,-0.29518732937253833,-0.21509462840921106,0.14702318082471214,0.12935496862973223
Umbralisib,-0.019857536769739614,-0.019857536769737043,-0.24988236469515357,-0.011463247562451661,-0.011463247562451661,-0.011463247562451661,-0.571996983956348,-0.28077272587498303,-0.6541042670255558,-0.2821769012259122,-0.3435868061445316,-0.3493238985773557,-0.2818993515067946,-0.2243723226127615,-0.20937396839342265
Uracil mustard,-0.019857536769739614,-0.019857536769737043,-0.7279562460097032,-0.011463247562451661,-0.011463247562451661,-0.011463247562451661,-0.5741653474905368,-0.4303310015141625,-0.5180522744722051,-0.4953716842974279,-0.44224932289917346,-0.6741433138062606,-0.300753139113632,-0.2992756174236804,-0.2955594375768289
Uridine triacetate,-0.019857536769739614,-0.019857536769737043,-0.630749096805441,-0.011463247562451661,-0.011463247562451661,-0.011463247562451661,-0.5880083190980224,-0.488953209121194,-0.7182255683814501,-0.398555178877102,-0.6493840616622206,-0.2304167912167745,-0.2922022388796652,0.005331114807390276,-0.03232629914068884
Valrubicin,-0.019857536769739614,-0.019857536769737043,-0.9074548424837314,-0.01146324756245166,-0.01146324756245166,-0.01146324756245166,-0.4098031072336526,-0.37596469229295343,-0.17952146811679093,-0.31082016610904495,-0.2966684975349717,-0.041712178559982105,-0.28265885508717814,0.38484114184938006,0.4283985035637836
Vandetanib,-0.019857536769739614,-0.019857536769737043,-0.3162200199710801,-0.011463247562451661,-0.011463247562451661,-0.011463247562451661,0.09369345843817412,0.12185292413198782,0.04142865368489839,0.17237904850926297,0.20292448264003027,0.19566701015864166,0.21459830670866606,-0.37168213574090225,-0.33765001555012025
Vemurafenib,-0.019857536769739614,-0.019857536769737043,-0.8439206094604353,-0.011463247562451661,-0.011463247562451661,-0.011463247562451661,-0.5471384044686686,-0.27889714908644675,-0.38309330537387215,-0.30947128352889486,-0.465092805479664,-0.26401046585726395,-0.2900082928935614,-0.31175949989216695,-0.23342572723530353
Venetoclax,-0.019857536769739614,-0.019857536769737043,-0.7066918999561757,-0.011463247562451661,-0.011463247562451661,-0.011463247562451661,-0.024861415715373387,0.29414255791034855,0.0860934789806466,0.3025039036801438,-0.5066295160096049,0.2500452604759807,0.26706447823140117,-0.3498353414210508,-0.2808611405067906
Vinblastine sulfate,-0.019857536769739614,-0.019857536769737043,0.09831794769398676,-0.011463247562451661,-0.011463247562451661,-0.011463247562451661,0.26658375232382,0.11317664852666606,0.3439677076970876,0.23695034629201306,0.13315925958864028,0.1021364196128186,-0.040379086502582595,0.015942414905603847,-0.024977150605669685
Vinblastine.1,-0.019857536769739614,-0.019857536769737043,-0.5499186019088497,-0.011463247562451661,-0.011463247562451661,-0.011463247562451661,-0.3685919784578459,-0.5192820984861717,-0.21331700933443365,-0.3990955817701792,-0.3000435571142308,-0.4380208668727487,-0.2825940039583258,0.0945908744570688,-0.0009253917637888869
Vincristine sulfate,-0.019857536769739614,-0.019857536769737043,-0.05292681001163597,-0.011463247562451661,-0.011463247562451661,-0.011463247562451661,-0.07938910702694549,-0.22299971759231013,0.016633167275398448,-0.1519448536263027,-0.0775769356198587,0.14491397652912527,-0.2451592893425992,0.5365203138414911,0.47008821888971036
Vinorelbine tartrate,-0.019857536769739614,-0.019857536769737043,-0.19232203203673268,-0.011463247562451661,-0.011463247562451661,-0.011463247562451661,-0.3031570095042716,-0.3433102686490034,-0.31879242629382193,-0.30696787587000146,-0.5852782741049192,0.017306349117769786,-0.28646009616689605,-0.10764802153241261,-0.10114105360495894
Vismodegib,-0.019857536769739614,-0.019857536769737043,-1.2974826471759024,-0.011463247562451661,-0.011463247562451661,-0.011463247562451661,-0.764255628094492,-0.29960292940460354,-0.5600535666218852,-0.3614405340209171,-0.6978835954447101,0.371369178961777,-0.30823799919413514,-0.5083806487708294,-0.47594762889093495
Vorinostat,-0.019857536769739614,-0.019857536769737043,0.5217912806485422,-0.011463247562451661,-0.011463247562451661,-0.011463247562451661,0.6747060955244192,0.7081757036217066,0.5129016341178303,0.6144836329411448,0.03849263566799266,0.5695476912294125,0.595619468042485,0.40543954792238285,0.4821140983106508
Zanubrutinib,-0.019857536769739614,-0.019857536769737043,-0.14868349876526393,-0.011463247562451661,-0.011463247562451661,-0.011463247562451661,-0.3497661870330773,-0.2724013061047267,-0.4879246810190529,-0.2910907313790333,-0.17821172198151877,-0.30896315278626413,-0.2433865304626699,0.3586249886655585,0.30172590699654467
Zoledronic acid,-0.019857536769739614,-0.019857536769737043,-0.2689985709573107,-0.011463247562451661,-0.011463247562451661,-0.011463247562451661,-0.49374126879726327,-0.4301205236295394,-0.5153346597798685,-0.4171473111492688,-0.6690376769503871,-0.06824876471484354,-0.31534236405401256,-0.36044664151926437,-0.3396543287869437
